{
    "in_shape": [
        null,
        null,
        1
    ],
    "layers": [
        {
            "type": "dense",
            "activation": "tanh",
            "shape": [
                null,
                null,
                8
            ],
            "weights": [
                [
                    [
                        0.01813681609928608,
                        -0.022279415279626846,
                        0.013483642600476742,
                        -0.06348519772291183,
                        -0.047110415995121,
                        -0.037802595645189285,
                        -0.09791076928377151,
                        0.05848848819732666
                    ]
                ],
                [
                    0.029128648340702057,
                    -0.05850808322429657,
                    -0.02236715517938137,
                    0.07080567628145218,
                    -0.08358869701623917,
                    -0.05681443586945534,
                    -0.006000920198857784,
                    -0.04015060141682625
                ]
            ]
        },
        {
            "type": "conv1d",
            "activation": "tanh",
            "shape": [
                null,
                null,
                4
            ],
            "kernel_size": [
                3
            ],
            "dilation": [
                2
            ],
            "groups": 1,
            "weights": [
                [
                    [
                        [
                            0.36664190888404846,
                            -0.07310938835144043,
                            0.1890573799610138,
                            0.2147507518529892
                        ],
                        [
                            0.214769646525383,
                            -0.07675880193710327,
                            -0.1727626770734787,
                            -0.03546209633350372
                        ],
                        [
                            0.1077454462647438,
                            0.17658193409442902,
                            0.252855509519577,
                            -0.019958538934588432
                        ],
                        [
                            -0.1906629502773285,
                            0.27123507857322693,
                            -0.21765592694282532,
                            -0.17249222099781036
                        ],
                        [
                            0.4027610719203949,
                            -0.10217659175395966,
                            0.3588849604129791,
                            -0.27921682596206665
                        ],
                        [
                            0.14902150630950928,
                            0.24921317398548126,
                            0.05292368307709694,
                            0.041930366307497025
                        ],
                        [
                            0.39003193378448486,
                            0.2554266154766083,
                            0.09631449729204178,
                            0.1331510841846466
                        ],
                        [
                            0.1867913156747818,
                            0.34954550862312317,
                            -0.04910627007484436,
                            0.3253837823867798
                        ]
                    ],
                    [
                        [
                            -0.13267137110233307,
                            0.09749887138605118,
                            0.019731691107153893,
                            -0.17467743158340454
                        ],
                        [
                            -0.10982625931501389,
                            0.05023208633065224,
                            0.03944024443626404,
                            0.3193444311618805
                        ],
                        [
                            -0.00855282973498106,
                            -0.37062332034111023,
                            -0.36149415373802185,
                            -0.32536742091178894
                        ],
                        [
                            -0.3411439061164856,
                            0.13101649284362793,
                            -0.33872169256210327,
                            -0.11590350419282913
                        ],
                        [
                            -0.05110626667737961,
                            0.24632108211517334,
                            0.021367086097598076,
                            -0.08693782240152359
                        ],
                        [
                            0.295986533164978,
                            0.15688066184520721,
                            0.3071150779724121,
                            0.1738150715827942
                        ],
                        [
                            0.1103002279996872,
                            -0.34606653451919556,
                            -0.3498266041278839,
                            -0.40129655599594116
                        ],
                        [
                            0.2812512218952179,
                            -0.0022072414867579937,
                            -0.28964823484420776,
                            0.3490854799747467
                        ]
                    ],
                    [
                        [
                            -0.11421464383602142,
                            0.18980950117111206,
                            0.1691836267709732,
                            0.20446333289146423
                        ],
                        [
                            -0.38167595863342285,
                            0.22054938971996307,
                            0.3469677269458771,
                            0.08565708994865417
                        ],
                        [
                            -0.20249027013778687,
                            -0.14340423047542572,
                            -0.3731171488761902,
                            -0.004315344616770744
                        ],
                        [
                            0.10243970155715942,
                            0.13147512078285217,
                            0.31053319573402405,
                            -0.22938933968544006
                        ],
                        [
                            0.2683376669883728,
                            0.09192213416099548,
                            -0.39000850915908813,
                            0.024067198857665062
                        ],
                        [
                            -0.07401099056005478,
                            -0.36935314536094666,
                            0.16788004338741302,
                            -0.1900189220905304
                        ],
                        [
                            0.17704486846923828,
                            -0.2826389670372009,
                            -0.029376700520515442,
                            0.323640912771225
                        ],
                        [
                            -0.3497758209705353,
                            -0.3232177495956421,
                            -0.2950454652309418,
                            0.31205958127975464
                        ]
                    ]
                ],
                [
                    -0.09627130627632141,
                    0.042117342352867126,
                    -0.023033246397972107,
                    0.03321045637130737
                ]
            ]
        },
        {
            "type": "gru",
            "activation": "tanh",
            "shape": [
                null,
                null,
                8
            ],
            "weights": [
                [
                    [
                        0.3794691264629364,
                        -0.18032291531562805,
                        -0.35981062054634094,
                        -0.0095400121062994,
                        -0.0770641416311264,
                        -0.35101401805877686,
                        -0.15280862152576447,
                        0.29938292503356934,
                        0.27463480830192566,
                        -0.3589300513267517,
                        0.31767362356185913,
                        -0.33563923835754395,
                        0.4250086545944214,
                        -0.05910414829850197,
                        -0.2820661664009094,
                        0.43399545550346375,
                        -0.3403351306915283,
                        -0.38178277015686035,
                        0.08034533262252808,
                        0.32411596179008484,
                        0.3953160345554352,
                        0.4615781605243683,
                        0.20198805630207062,
                        0.10783916711807251
                    ],
                    [
                        0.04664379358291626,
                        0.11002931743860245,
                        0.0912175178527832,
                        -0.1907060146331787,
                        0.3656221926212311,
                        0.012566553428769112,
                        0.01050922553986311,
                        0.07026840001344681,
                        0.01628648117184639,
                        -0.2682258188724518,
                        -0.10100781172513962,
                        0.44057196378707886,
                        -0.4239269495010376,
                        -0.10449820756912231,
                        -0.241594597697258,
                        0.15789729356765747,
                        -0.04157941788434982,
                        -0.1491367518901825,
                        0.05480872839689255,
                        0.12249055504798889,
                        -0.3558200001716614,
                        0.2747548222541809,
                        -0.3441270887851715,
                        0.11921665072441101
                    ],
                    [
                        -0.23897980153560638,
                        -0.4545210301876068,
                        -0.09448156505823135,
                        -0.1997607946395874,
                        0.17040376365184784,
                        -0.17407380044460297,
                        0.1819882094860077,
                        0.13543115556240082,
                        0.19161152839660645,
                        -0.17200563848018646,
                        0.2808167040348053,
                        -0.01257715281099081,
                        -0.20076613128185272,
                        -0.3386467695236206,
                        0.2065170556306839,
                        0.40170741081237793,
                        0.18784122169017792,
                        0.2517560124397278,
                        -0.3703427016735077,
                        -0.2916872203350067,
                        -0.07966860383749008,
                        0.030331090092658997,
                        0.3158733546733856,
                        -0.44224968552589417
                    ],
                    [
                        -0.13011468946933746,
                        0.26267150044441223,
                        0.13875415921211243,
                        -0.28799623250961304,
                        0.15367667376995087,
                        0.40075987577438354,
                        -0.1327958106994629,
                        -0.17964816093444824,
                        0.1241852194070816,
                        -0.17568965256214142,
                        0.3587838113307953,
                        -0.2788967192173004,
                        0.05413733795285225,
                        -0.43951722979545593,
                        -0.32210463285446167,
                        -0.3268113434314728,
                        0.3155408203601837,
                        -0.436393141746521,
                        0.2407080978155136,
                        -0.16914378106594086,
                        -0.299887478351593,
                        0.13198694586753845,
                        -0.194635808467865,
                        -0.3912065327167511
                    ]
                ],
                [
                    [
                        0.02434016391634941,
                        -0.05291569605469704,
                        -0.3137335181236267,
                        2.982989371957956e-06,
                        0.4249381422996521,
                        0.2974972128868103,
                        -0.1057872474193573,
                        0.06957541406154633,
                        0.13623566925525665,
                        -0.2674366235733032,
                        -0.004071612376719713,
                        0.10643357038497925,
                        -0.24712170660495758,
                        0.1535472571849823,
                        -0.31281742453575134,
                        -0.02150699496269226,
                        -0.026802316308021545,
                        0.40294837951660156,
                        0.1285659521818161,
                        0.132798969745636,
                        -0.22950541973114014,
                        0.15411882102489471,
                        -0.06283213198184967,
                        -0.25161871314048767
                    ],
                    [
                        0.01930634304881096,
                        0.1690719872713089,
                        -0.12774740159511566,
                        0.031440045684576035,
                        0.2563220262527466,
                        0.20715782046318054,
                        0.031015321612358093,
                        -0.44033148884773254,
                        -0.0544474832713604,
                        0.026808422058820724,
                        -0.13205216825008392,
                        -0.28614628314971924,
                        -0.21310651302337646,
                        -0.30922940373420715,
                        -0.042750708758831024,
                        -0.12212275713682175,
                        -0.00641694525256753,
                        -0.27626535296440125,
                        -0.040574558079242706,
                        -0.10800734162330627,
                        0.25388482213020325,
                        0.46870335936546326,
                        0.11299502104520798,
                        0.13044753670692444
                    ],
                    [
                        -0.17479003965854645,
                        -0.3409857153892517,
                        0.061539582908153534,
                        -0.18864016234874725,
                        -0.0722750797867775,
                        0.0761987641453743,
                        -0.5299721360206604,
                        -0.5123710036277771,
                        0.10846026241779327,
                        -0.03066278249025345,
                        -0.08881774544715881,
                        0.06050771102309227,
                        0.22419671714305878,
                        0.13578517735004425,
                        -0.12265004962682724,
                        0.21277962625026703,
                        0.13442863523960114,
                        -0.03076566755771637,
                        -0.030478626489639282,
                        0.01357163768261671,
                        -0.032545264810323715,
                        -0.08111966401338577,
                        0.27303627133369446,
                        0.001767702167853713
                    ],
                    [
                        0.19954122602939606,
                        0.16636405885219574,
                        0.08227269351482391,
                        0.06840945780277252,
                        0.015719933435320854,
                        -0.20608291029930115,
                        0.06205049157142639,
                        0.05869589373469353,
                        0.23574858903884888,
                        -0.36863115429878235,
                        -0.17470990121364594,
                        -0.10993171483278275,
                        -0.10103257745504379,
                        0.15970073640346527,
                        0.00843369122594595,
                        0.05605732649564743,
                        0.19331508874893188,
                        0.3200821280479431,
                        0.16933763027191162,
                        -0.1458171159029007,
                        0.21681056916713715,
                        -0.10711915791034698,
                        0.35151079297065735,
                        0.44367241859436035
                    ],
                    [
                        0.059468984603881836,
                        -0.24111667275428772,
                        -0.2019537389278412,
                        -0.09672030061483383,
                        -0.14531674981117249,
                        -0.3328551948070526,
                        -0.03872409462928772,
                        0.014662370085716248,
                        -0.10660160332918167,
                        0.024278050288558006,
                        -0.2629171907901764,
                        0.26139509677886963,
                        -0.09153615683317184,
                        -0.31169068813323975,
                        -0.18185505270957947,
                        -0.08849941939115524,
                        -0.19413934648036957,
                        0.25165602564811707,
                        -0.46529459953308105,
                        -0.12492269277572632,
                        -0.1524084210395813,
                        0.17885702848434448,
                        -0.04103228077292442,
                        0.28057992458343506
                    ],
                    [
                        0.08097971975803375,
                        -0.02646305412054062,
                        -0.07819194346666336,
                        -0.2242710143327713,
                        0.4872226417064667,
                        -0.0507693737745285,
                        -0.07034605741500854,
                        0.07478103786706924,
                        -0.06087679788470268,
                        -0.20217324793338776,
                        0.4301503002643585,
                        0.12840522825717926,
                        0.23365554213523865,
                        -0.3008852005004883,
                        0.3421594500541687,
                        0.0983797162771225,
                        -0.16397705674171448,
                        -0.10332214087247849,
                        -0.010435949079692364,
                        -0.12643055617809296,
                        -0.18907968699932098,
                        -0.08524969965219498,
                        0.19876974821090698,
                        0.18912488222122192
                    ],
                    [
                        0.046566229313611984,
                        -0.06374809145927429,
                        0.03188110515475273,
                        -0.35263657569885254,
                        -0.16821610927581787,
                        0.43969303369522095,
                        0.21743299067020416,
                        -0.0690365806221962,
                        0.10592405498027802,
                        -0.05152122303843498,
                        0.36949867010116577,
                        0.033552732318639755,
                        -0.015276020392775536,
                        -0.044737011194229126,
                        -0.29934072494506836,
                        -0.14099664986133575,
                        -0.025711113587021828,
                        0.06768116354942322,
                        -0.18470150232315063,
                        0.08654559403657913,
                        0.2760651409626007,
                        -0.2593937814235687,
                        -0.1914287656545639,
                        0.29209718108177185
                    ],
                    [
                        -0.10880028456449509,
                        0.13990817964076996,
                        -0.07904837280511856,
                        -0.03287108242511749,
                        0.32994526624679565,
                        0.054793547838926315,
                        0.3257119953632355,
                        -0.29212164878845215,
                        0.0856378823518753,
                        0.32580330967903137,
                        -0.299896240234375,
                        -0.014477165415883064,
                        0.2436821311712265,
                        -0.003282687161117792,
                        0.14436709880828857,
                        0.04740612581372261,
                        0.3084571361541748,
                        0.22432653605937958,
                        -0.08504068851470947,
                        0.040264371782541275,
                        -0.25037646293640137,
                        -0.2538602352142334,
                        -0.23196028172969818,
                        0.18617825210094452
                    ]
                ],
                [
                    [
                        0.030701447278261185,
                        0.03697075694799423,
                        0.06690645217895508,
                        -0.005709607154130936,
                        0.0353536419570446,
                        -0.023188726976513863,
                        0.006455378606915474,
                        0.06805486232042313,
                        0.03953050449490547,
                        0.016936281695961952,
                        0.09347612410783768,
                        -0.0611799992620945,
                        -0.05194197967648506,
                        -0.038625605404376984,
                        0.053710535168647766,
                        -0.10153825581073761,
                        0.00965163018554449,
                        -0.036156050860881805,
                        -0.06563854962587357,
                        -0.10521349310874939,
                        -0.049596481025218964,
                        -0.03702149912714958,
                        0.03064783290028572,
                        0.07992464303970337
                    ],
                    [
                        -0.0593741349875927,
                        -0.06916116178035736,
                        -0.019424673169851303,
                        -0.042106930166482925,
                        0.055078137665987015,
                        0.08353077620267868,
                        0.0624699629843235,
                        -0.030644340440630913,
                        0.06212533265352249,
                        0.008056938648223877,
                        -0.06609339267015457,
                        -0.019661936908960342,
                        0.08088332414627075,
                        0.010261748917400837,
                        0.050722647458314896,
                        0.08654230833053589,
                        -0.0024841276463121176,
                        0.014656336046755314,
                        -0.05133846029639244,
                        0.050111159682273865,
                        -0.09310944378376007,
                        -0.012462522834539413,
                        0.04548041895031929,
                        0.02281157858669758
                    ]
                ]
            ]
        },
        {
            "type": "dense",
            "activation": "",
            "shape": [
                null,
                null,
                1
            ],
            "weights": [
                [
                    [
                        0.2934628129005432
                    ],
                    [
                        0.6092161536216736
                    ],
                    [
                        0.4295378029346466
                    ],
                    [
                        0.1922074258327484
                    ],
                    [
                        0.19961322844028473
                    ],
                    [
                        -0.4978177547454834
                    ],
                    [
                        4.303285095375031e-05
                    ],
                    [
                        0.11865178495645523
                    ]
                ],
                [
                    -0.014721335843205452
                ]
            ]
        }
    ]
}