{
    "in_shape": [
        null,
        null,
        1
    ],
    "layers": [
        {
            "type": "dense",
            "activation": "tanh",
            "shape": [
                null,
                null,
                8
            ],
            "weights": [
                [
                    [
                        0.7227181196212769,
                        -0.585081934928894,
                        -0.5546277165412903,
                        -0.535241961479187,
                        0.5674508810043335,
                        -0.47975674271583557,
                        0.3986770510673523,
                        -0.21147577464580536
                    ]
                ],
                [
                    0.0001348071964457631,
                    -0.00036408804589882493,
                    0.0007230750052258372,
                    0.00017233028484042734,
                    -0.00019911259005311877,
                    0.00021939245925750583,
                    -0.00021866038150619715,
                    0.00021467408805619925
                ]
            ]
        },
        {
            "type": "conv1d",
            "activation": "tanh",
            "shape": [
                null,
                null,
                4
            ],
            "kernel_size": [
                3
            ],
            "dilation": [
                1
            ],
            "groups": 1,
            "weights": [
                [
                    [
                        [
                            -0.0162921492010355,
                            -0.09886205941438675,
                            -0.12342382222414017,
                            0.05677308514714241
                        ],
                        [
                            -0.19629935920238495,
                            -0.14188839495182037,
                            0.3486267030239105,
                            0.24941813945770264
                        ],
                        [
                            0.3455970883369446,
                            -0.08772865682840347,
                            0.10188713669776917,
                            0.2756054997444153
                        ],
                        [
                            -0.07088001817464828,
                            -0.2267961949110031,
                            -0.36001601815223694,
                            -0.04675575718283653
                        ],
                        [
                            0.42166370153427124,
                            0.15562604367733002,
                            0.19841279089450836,
                            -0.23287130892276764
                        ],
                        [
                            0.16335996985435486,
                            0.3450530469417572,
                            -0.2817830741405487,
                            -0.05896048992872238
                        ],
                        [
                            -0.31733763217926025,
                            -0.095566026866436,
                            0.32445693016052246,
                            -0.412143349647522
                        ],
                        [
                            0.2384493350982666,
                            0.3157254457473755,
                            -0.031068509444594383,
                            0.1873244047164917
                        ]
                    ],
                    [
                        [
                            0.07260726392269135,
                            0.19790250062942505,
                            -0.22042469680309296,
                            -0.17355646193027496
                        ],
                        [
                            -0.08228161185979843,
                            -0.3426275849342346,
                            -0.07291653752326965,
                            0.3361794650554657
                        ],
                        [
                            -0.016442546620965004,
                            -0.24954742193222046,
                            -0.2069520205259323,
                            -0.06359273940324783
                        ],
                        [
                            -0.21018153429031372,
                            -0.018810033798217773,
                            0.2047049105167389,
                            -0.11523575335741043
                        ],
                        [
                            -0.0935291275382042,
                            0.392549604177475,
                            0.11492984741926193,
                            0.14639756083488464
                        ],
                        [
                            0.24212606251239777,
                            -0.2539176046848297,
                            -0.3784042000770569,
                            0.40240150690078735
                        ],
                        [
                            0.12211635708808899,
                            0.21814727783203125,
                            0.39568066596984863,
                            0.03143077716231346
                        ],
                        [
                            -0.059025101363658905,
                            0.3261123299598694,
                            -0.09777998924255371,
                            0.0025319904088974
                        ]
                    ],
                    [
                        [
                            -0.12007737904787064,
                            -0.15148022770881653,
                            0.16088640689849854,
                            0.19192813336849213
                        ],
                        [
                            0.34962496161460876,
                            0.04207579791545868,
                            0.05311691388487816,
                            -0.22887490689754486
                        ],
                        [
                            -0.25454947352409363,
                            -0.08108817040920258,
                            0.01667548157274723,
                            -0.20550255477428436
                        ],
                        [
                            -0.11615024507045746,
                            0.2600376009941101,
                            -0.00318287406116724,
                            0.2057158499956131
                        ],
                        [
                            -0.2536998689174652,
                            0.12482935190200806,
                            0.07074122130870819,
                            0.001516020973213017
                        ],
                        [
                            -0.01317985076457262,
                            0.24759212136268616,
                            -0.08963403850793839,
                            0.03850049152970314
                        ],
                        [
                            -0.047439366579055786,
                            0.41573163866996765,
                            0.002106457483023405,
                            0.12045973539352417
                        ],
                        [
                            0.23230695724487305,
                            -0.03836488351225853,
                            -0.09335579723119736,
                            -0.21860697865486145
                        ]
                    ]
                ],
                [
                    -0.00013107842823956162,
                    0.0001329145597992465,
                    -0.00038900249637663364,
                    -0.00028327328618615866
                ]
            ]
        },
        {
            "type": "gru",
            "activation": "tanh",
            "shape": [
                null,
                null,
                8
            ],
            "weights": [
                [
                    [
                        0.24681386351585388,
                        0.13250122964382172,
                        0.23551392555236816,
                        0.24116872251033783,
                        -0.4049409031867981,
                        0.009666256606578827,
                        -0.3374979794025421,
                        0.3715539276599884,
                        -0.45051050186157227,
                        0.16073359549045563,
                        -0.32318809628486633,
                        0.02399113029241562,
                        0.24283353984355927,
                        -0.08398264646530151,
                        0.016209928318858147,
                        -0.18343336880207062,
                        -0.44587406516075134,
                        -0.025034308433532715,
                        -0.09788589179515839,
                        -0.0765947699546814,
                        0.39201995730400085,
                        -0.39108702540397644,
                        -0.2439749538898468,
                        -0.22216378152370453
                    ],
                    [
                        -0.05885472148656845,
                        0.23191238939762115,
                        0.4255545437335968,
                        0.4295056164264679,
                        -0.17249436676502228,
                        0.29234886169433594,
                        0.17657583951950073,
                        -0.17409159243106842,
                        0.39927205443382263,
                        -0.13331463932991028,
                        0.1285596638917923,
                        0.23543767631053925,
                        -0.13147291541099548,
                        -0.1423652321100235,
                        -0.09715592116117477,
                        0.2763635218143463,
                        -0.4011738896369934,
                        0.025933705270290375,
                        0.3469599187374115,
                        0.22400644421577454,
                        0.33570221066474915,
                        0.13389785587787628,
                        -0.1611407846212387,
                        0.47648194432258606
                    ],
                    [
                        0.10529756546020508,
                        -0.18366719782352448,
                        0.41582947969436646,
                        0.10874836146831512,
                        -0.12841808795928955,
                        -0.25980687141418457,
                        -0.31624627113342285,
                        0.09917087107896805,
                        -0.2882314920425415,
                        0.2127448469400406,
                        -0.30891311168670654,
                        -0.11561794579029083,
                        0.050981104373931885,
                        -0.18627840280532837,
                        -0.34307757019996643,
                        0.452364444732666,
                        0.2108820676803589,
                        -0.3603728115558624,
                        -0.24281045794487,
                        -0.4214502274990082,
                        0.2070746272802353,
                        -0.12723873555660248,
                        0.16133791208267212,
                        0.11093594878911972
                    ],
                    [
                        0.2753228545188904,
                        -0.4106413424015045,
                        0.43626558780670166,
                        0.04709639400243759,
                        -0.4359544813632965,
                        -0.3932206630706787,
                        0.33889147639274597,
                        0.09571339935064316,
                        0.18323008716106415,
                        0.29182666540145874,
                        0.20262454450130463,
                        0.45214080810546875,
                        0.36347338557243347,
                        -0.11095726490020752,
                        0.37965065240859985,
                        -0.07564770430326462,
                        0.14253132045269012,
                        0.37550875544548035,
                        0.2924661338329315,
                        -0.42569488286972046,
                        -0.05660994350910187,
                        0.3950236141681671,
                        0.1525234878063202,
                        0.18505512177944183
                    ]
                ],
                [
                    [
                        0.4081830680370331,
                        -0.32500985264778137,
                        -0.09484005719423294,
                        0.3454565405845642,
                        -0.059141311794519424,
                        -0.32342231273651123,
                        -0.023771265521645546,
                        -0.14852909743785858,
                        0.03021460399031639,
                        -0.05149104446172714,
                        -0.09547872096300125,
                        -0.3445257544517517,
                        -0.14682769775390625,
                        -0.18683984875679016,
                        0.31155163049697876,
                        -0.10631254315376282,
                        -0.0076324185356497765,
                        0.26171064376831055,
                        0.22086991369724274,
                        0.02968701720237732,
                        0.2335476279258728,
                        -0.059542570263147354,
                        -0.005333269014954567,
                        0.04108394309878349
                    ],
                    [
                        0.4601764678955078,
                        -0.14354531466960907,
                        -0.231219083070755,
                        -0.05180714279413223,
                        0.325594961643219,
                        0.1915738731622696,
                        -0.3210839629173279,
                        0.04451526328921318,
                        -0.21224139630794525,
                        -0.2022850215435028,
                        -0.2658337950706482,
                        0.12478494644165039,
                        0.13123035430908203,
                        -0.14574208855628967,
                        -0.16440708935260773,
                        0.18817482888698578,
                        0.15038129687309265,
                        -0.27608823776245117,
                        -0.059658776968717575,
                        0.16286277770996094,
                        0.03012836165726185,
                        0.0006783622084185481,
                        0.20804423093795776,
                        -0.11212475597858429
                    ],
                    [
                        0.22620195150375366,
                        0.11665106564760208,
                        0.1173354983329773,
                        -0.08895978331565857,
                        0.3105422854423523,
                        -0.12901149690151215,
                        0.005785941146314144,
                        0.2911686301231384,
                        -0.11159957200288773,
                        0.07379063963890076,
                        -0.32771340012550354,
                        0.10776849091053009,
                        -0.24366135895252228,
                        0.21088120341300964,
                        -0.25113704800605774,
                        -0.008724492974579334,
                        -0.19991657137870789,
                        0.29253971576690674,
                        -0.0030676720198243856,
                        -0.1116703450679779,
                        0.04653084650635719,
                        -0.00558780413120985,
                        -0.35963743925094604,
                        0.3763139843940735
                    ],
                    [
                        0.41135287284851074,
                        -0.1707828789949417,
                        0.058010369539260864,
                        -0.5217898488044739,
                        -0.11080212146043777,
                        -0.02678097039461136,
                        0.1984986960887909,
                        0.2218697965145111,
                        0.13008633255958557,
                        0.07755883783102036,
                        0.46952569484710693,
                        0.13652120530605316,
                        -0.13942880928516388,
                        0.0891445055603981,
                        0.08384799212217331,
                        0.21099841594696045,
                        0.19444896280765533,
                        0.04253653064370155,
                        0.12457919120788574,
                        0.07714086025953293,
                        0.12491703778505325,
                        0.009713690727949142,
                        -0.049024682492017746,
                        -0.08474261313676834
                    ],
                    [
                        0.04143817350268364,
                        -0.33588850498199463,
                        0.12239101529121399,
                        0.1385778784751892,
                        0.09520169347524643,
                        -0.2541411519050598,
                        -0.055553875863552094,
                        0.14627116918563843,
                        0.27155351638793945,
                        0.2570306956768036,
                        0.1754712015390396,
                        0.04902553930878639,
                        0.43966954946517944,
                        -0.17175507545471191,
                        -0.4776929020881653,
                        -0.2689897119998932,
                        0.030321044847369194,
                        -0.12588325142860413,
                        0.1084398403763771,
                        -0.01719066873192787,
                        -0.07661586999893188,
                        0.11732614040374756,
                        -0.10186850279569626,
                        0.05234146490693092
                    ],
                    [
                        -0.30026009678840637,
                        -0.037724729627370834,
                        -0.08882129192352295,
                        -0.08123262971639633,
                        0.16169345378875732,
                        0.12887567281723022,
                        -0.44210347533226013,
                        0.01631763204932213,
                        0.0512656606733799,
                        -0.22519899904727936,
                        0.16497868299484253,
                        0.13678133487701416,
                        0.09200580418109894,
                        -0.08483446389436722,
                        -0.05824514105916023,
                        0.04642961546778679,
                        -0.05783203989267349,
                        0.5208126902580261,
                        0.34892383217811584,
                        0.18815499544143677,
                        0.12497992813587189,
                        -0.2502962350845337,
                        -0.1340903341770172,
                        -0.16518858075141907
                    ],
                    [
                        0.1134643703699112,
                        0.17688576877117157,
                        0.04688834771513939,
                        0.07705150544643402,
                        -0.2542949616909027,
                        0.3491387367248535,
                        0.17371903359889984,
                        0.030284147709608078,
                        -0.3320142924785614,
                        0.29942527413368225,
                        -0.08186326175928116,
                        0.010708898305892944,
                        0.008752175606787205,
                        -0.41913434863090515,
                        -0.08684243261814117,
                        -0.017353568226099014,
                        -0.038743242621421814,
                        0.18117313086986542,
                        0.25537973642349243,
                        0.3557841181755066,
                        -0.10161920636892319,
                        0.29360124468803406,
                        -0.15707558393478394,
                        -0.04570206254720688
                    ],
                    [
                        -0.04465622454881668,
                        0.2551797032356262,
                        -0.43607231974601746,
                        -0.013350149616599083,
                        -0.12459693849086761,
                        -0.3150540292263031,
                        0.20778007805347443,
                        -0.021287987008690834,
                        0.0963815376162529,
                        -0.17917875945568085,
                        -0.07437450438737869,
                        0.2779463827610016,
                        0.2920827269554138,
                        -0.21276456117630005,
                        -0.0009988527745008469,
                        0.1899171620607376,
                        0.14861392974853516,
                        0.09183007478713989,
                        -0.1501416563987732,
                        -0.19770200550556183,
                        0.3085358142852783,
                        0.275553822517395,
                        -0.25185415148735046,
                        -0.016573956236243248
                    ]
                ],
                [
                    [
                        -0.005904175341129303,
                        0.014880537986755371,
                        0.005022747907787561,
                        -0.004643728956580162,
                        0.016147468239068985,
                        -0.0036093266680836678,
                        0.005454918835312128,
                        -0.003991380333900452,
                        0.00229656626470387,
                        -0.0010871811537072062,
                        0.003649288322776556,
                        0.006339323706924915,
                        0.003203562693670392,
                        0.00490681454539299,
                        0.007807386573404074,
                        0.0005928081809543073,
                        -0.0002870578318834305,
                        -4.3038853618782014e-05,
                        -0.00012799710384570062,
                        -0.00023072819749359041,
                        0.00019458855967968702,
                        0.00015364272985607386,
                        -0.00033317628549411893,
                        -5.388854333432391e-05
                    ],
                    [
                        -0.005904175341129303,
                        0.014880537986755371,
                        0.005022747907787561,
                        -0.004643728956580162,
                        0.016147468239068985,
                        -0.0036093266680836678,
                        0.005454918835312128,
                        -0.003991380333900452,
                        0.00229656626470387,
                        -0.0010871811537072062,
                        0.003649288322776556,
                        0.006339323706924915,
                        0.003203562693670392,
                        0.00490681454539299,
                        0.007807386573404074,
                        0.0005928081809543073,
                        0.00029718969017267227,
                        0.00016658059030305594,
                        -0.0002295489248353988,
                        -4.419634933583438e-06,
                        -0.0003339097020216286,
                        2.0657716959249228e-05,
                        0.0004994411719962955,
                        0.00038497120840474963
                    ]
                ]
            ]
        },
        {
            "type": "dense",
            "activation": "",
            "shape": [
                null,
                null,
                1
            ],
            "weights": [
                [
                    [
                        -0.37911754846572876
                    ],
                    [
                        0.5298227071762085
                    ],
                    [
                        0.378437876701355
                    ],
                    [
                        0.2835751473903656
                    ],
                    [
                        -0.8137991428375244
                    ],
                    [
                        -0.5152075290679932
                    ],
                    [
                        0.2752376198768616
                    ],
                    [
                        0.3118418753147125
                    ]
                ],
                [
                    -0.0003857637639157474
                ]
            ]
        }
    ]
}