{
    "in_shape": [
        null,
        null,
        1
    ],
    "layers": [
        {
            "type": "conv1d",
            "activation": "relu",
            "shape": [
                null,
                null,
                8
            ],
            "kernel_size": [
                5
            ],
            "dilation": [
                1
            ],
            "groups": 1,
            "weights": [
                [
                    [
                        [
                            -0.24520115554332733,
                            -0.2825101912021637,
                            -0.30199283361434937,
                            0.07273194193840027,
                            0.06193668767809868,
                            -0.02717209793627262,
                            0.0794672966003418,
                            -0.2839173972606659
                        ]
                    ],
                    [
                        [
                            -0.3353387713432312,
                            0.012228921055793762,
                            0.2794249355792999,
                            0.2301117181777954,
                            0.21843786537647247,
                            -0.14432458579540253,
                            0.19506202638149261,
                            -0.20376159250736237
                        ]
                    ],
                    [
                        [
                            0.32613563537597656,
                            -0.2582781910896301,
                            -0.29089975357055664,
                            -0.2532814145088196,
                            -0.2513292729854584,
                            -0.2968202531337738,
                            -0.04582126438617706,
                            -0.29399341344833374
                        ]
                    ],
                    [
                        [
                            -0.21679995954036713,
                            0.2006375938653946,
                            -0.05518608167767525,
                            -0.013054945506155491,
                            0.08989567309617996,
                            -0.07840369641780853,
                            -0.224789559841156,
                            -0.031228529289364815
                        ]
                    ],
                    [
                        [
                            -0.24002408981323242,
                            0.3443097472190857,
                            0.08501336723566055,
                            -0.08343522995710373,
                            -0.2653058171272278,
                            -0.33909958600997925,
                            -0.2850525975227356,
                            0.3252331018447876
                        ]
                    ]
                ],
                [
                    -0.0025861519388854504,
                    -0.01068043615669012,
                    -0.009141921997070312,
                    -0.0024270107969641685,
                    -0.004454538691788912,
                    -0.0024298804346472025,
                    -0.010451465845108032,
                    -0.004610198549926281
                ]
            ]
        },
        {
            "type": "batchnorm",
            "activation": "",
            "shape": [
                null,
                null,
                8
            ],
            "epsilon": 0.001,
            "weights": [
                [
                    1.009071707725525,
                    0.9887965321540833,
                    0.9918448328971863,
                    0.9974765181541443,
                    0.9905478358268738,
                    0.9911960959434509,
                    0.9917294979095459,
                    0.9920972585678101
                ],
                [
                    0.0034089689143002033,
                    0.003977428190410137,
                    0.010308259166777134,
                    0.005471657495945692,
                    -0.0033534583635628223,
                    -0.005887147970497608,
                    0.005327457096427679,
                    0.005002760328352451
                ],
                [
                    0.0012996869627386332,
                    8.157566480804235e-05,
                    0.0003636846668086946,
                    0.00020437595958355814,
                    0.0003177184844389558,
                    0.0018625602824613452,
                    0.00038499152287840843,
                    0.0009384369477629662
                ],
                [
                    0.8179672360420227,
                    0.8179081082344055,
                    0.8179147243499756,
                    0.8179076910018921,
                    0.8179104924201965,
                    0.8180123567581177,
                    0.8179147839546204,
                    0.8179388642311096
                ]
            ]
        },
        {
            "type": "lstm",
            "activation": "tanh",
            "shape": [
                null,
                null,
                16
            ],
            "weights": [
                [
                    [
                        -0.2192998230457306,
                        -0.23873402178287506,
                        0.10816903412342072,
                        0.027446947991847992,
                        -0.22600798308849335,
                        -0.10635732859373093,
                        -0.1501055806875229,
                        -0.16871073842048645,
                        -0.007794098928570747,
                        0.18127663433551788,
                        -0.25794917345046997,
                        -0.2848898768424988,
                        0.055253054946660995,
                        0.016825906932353973,
                        0.07788455486297607,
                        -0.21238090097904205,
                        0.14257435500621796,
                        0.17641344666481018,
                        -0.12925417721271515,
                        0.15552987158298492,
                        -0.14688269793987274,
                        0.05081301927566528,
                        0.03441212698817253,
                        -0.056699302047491074,
                        0.1818627566099167,
                        -0.18024422228336334,
                        -0.27957576513290405,
                        -0.17652647197246552,
                        0.22145050764083862,
                        -0.1707073599100113,
                        -0.08081170916557312,
                        -0.04224614426493645,
                        0.14416755735874176,
                        0.2758488059043884,
                        -0.08872807770967484,
                        -0.03433274105191231,
                        0.07167655229568481,
                        -0.27602460980415344,
                        0.15716874599456787,
                        -0.1693052351474762,
                        -0.1130499467253685,
                        -0.021775176748633385,
                        -0.04134684428572655,
                        -0.1470288783311844,
                        -0.09247848391532898,
                        0.23622968792915344,
                        0.19066010415554047,
                        -0.13779589533805847,
                        -0.1318073868751526,
                        -0.03758186846971512,
                        -0.019460024312138557,
                        0.16761547327041626,
                        -0.13628913462162018,
                        0.22975026071071625,
                        -0.239171102643013,
                        -0.013696536421775818,
                        0.23225334286689758,
                        -0.013511455617845058,
                        -0.18369174003601074,
                        -0.22300200164318085,
                        -0.060086943209171295,
                        0.21498173475265503,
                        0.05997902527451515,
                        -0.1409854143857956
                    ],
                    [
                        -0.12830416858196259,
                        0.19455313682556152,
                        0.03228435665369034,
                        -0.03827816620469093,
                        0.015639152377843857,
                        -0.2076282948255539,
                        0.04311273992061615,
                        0.06382271647453308,
                        0.10590387135744095,
                        -0.09134164452552795,
                        -0.15118756890296936,
                        0.06437819451093674,
                        0.13778243958950043,
                        0.002096940763294697,
                        -0.04286980628967285,
                        0.09710760414600372,
                        -0.17361082136631012,
                        -0.12110349535942078,
                        0.10641462355852127,
                        -0.10316506028175354,
                        0.2605663537979126,
                        0.18941974639892578,
                        -0.28561368584632874,
                        -0.0835305005311966,
                        -0.15793047845363617,
                        -0.14789003133773804,
                        -0.18951871991157532,
                        -0.17120787501335144,
                        -0.018985794857144356,
                        -0.08543917536735535,
                        0.2681414484977722,
                        -0.1963702291250229,
                        -0.2726474404335022,
                        -0.27070626616477966,
                        0.11546658724546432,
                        -0.11254365742206573,
                        -0.2453722208738327,
                        0.1319996565580368,
                        -0.2342604100704193,
                        -0.13799431920051575,
                        -0.21266041696071625,
                        -0.1286032795906067,
                        0.020519131794571877,
                        -0.20519384741783142,
                        -0.10244528949260712,
                        -0.0120356110855937,
                        -0.19401541352272034,
                        0.21650582551956177,
                        0.2560945749282837,
                        0.1655685305595398,
                        -0.12995792925357819,
                        -0.13977932929992676,
                        -0.10467537492513657,
                        -0.10638788342475891,
                        0.1556597650051117,
                        -0.0810835063457489,
                        -0.26655465364456177,
                        -0.07888076454401016,
                        -0.25391584634780884,
                        0.26001405715942383,
                        0.25284749269485474,
                        -0.25070226192474365,
                        -0.029662076383829117,
                        -0.08569537103176117
                    ],
                    [
                        -0.04851263761520386,
                        0.0314766950905323,
                        -0.17116376757621765,
                        -0.21419599652290344,
                        -0.2621745467185974,
                        -0.029048185795545578,
                        0.14254669845104218,
                        -0.23315691947937012,
                        -0.14241117238998413,
                        -0.23511625826358795,
                        -0.15416686236858368,
                        0.016330799087882042,
                        -0.09429491311311722,
                        -0.003121553221717477,
                        -0.18913595378398895,
                        0.014512141235172749,
                        -0.20271150767803192,
                        0.2536192834377289,
                        0.1368456780910492,
                        0.15396752953529358,
                        -0.029083125293254852,
                        -0.026359757408499718,
                        -0.20811761915683746,
                        -0.25673744082450867,
                        -0.20066915452480316,
                        0.21713660657405853,
                        0.15142183005809784,
                        0.13728852570056915,
                        0.08568849414587021,
                        -0.12940844893455505,
                        -0.12528561055660248,
                        0.19701704382896423,
                        -0.001134478603489697,
                        -0.18990568816661835,
                        0.07422750443220139,
                        0.09561977535486221,
                        0.2301052212715149,
                        -0.03096635267138481,
                        -0.28944629430770874,
                        0.06753424555063248,
                        -0.1927710622549057,
                        0.021031148731708527,
                        -0.2632780969142914,
                        0.24783462285995483,
                        0.1054580956697464,
                        0.0644453689455986,
                        -0.16783258318901062,
                        -0.09844020009040833,
                        0.25645220279693604,
                        0.022015104070305824,
                        -0.20030149817466736,
                        -0.0737624242901802,
                        -0.2546864151954651,
                        -0.11673539876937866,
                        -0.0042151957750320435,
                        0.07659751921892166,
                        -0.2164987325668335,
                        -0.07823068648576736,
                        -0.12294315546751022,
                        -0.10715141892433167,
                        0.2147238552570343,
                        0.07730589807033539,
                        0.03584257885813713,
                        -0.11317779868841171
                    ],
                    [
                        0.07932781428098679,
                        0.2522517144680023,
                        -0.03939419239759445,
                        0.28021684288978577,
                        0.08732152730226517,
                        -0.2584593594074249,
                        -0.026856282725930214,
                        -0.11709694564342499,
                        0.02062845602631569,
                        0.03773825988173485,
                        0.04966631904244423,
                        0.25954654812812805,
                        0.1890297681093216,
                        -0.21808983385562897,
                        -0.1501152068376541,
                        -0.12059947103261948,
                        0.2627810537815094,
                        -0.13671210408210754,
                        -0.25814753770828247,
                        0.20649786293506622,
                        -0.23868811130523682,
                        -0.16646870970726013,
                        0.041435811668634415,
                        -0.2334391176700592,
                        0.026558609679341316,
                        0.155933678150177,
                        0.07785345613956451,
                        -0.17398051917552948,
                        0.15463757514953613,
                        0.24690881371498108,
                        -0.1493711769580841,
                        -0.07881713658571243,
                        -0.19175748527050018,
                        0.21968382596969604,
                        -0.18664374947547913,
                        -0.12776730954647064,
                        -0.030812682583928108,
                        -0.21351954340934753,
                        0.18615932762622833,
                        0.1986810266971588,
                        -0.2739548981189728,
                        -0.28190115094184875,
                        0.04926762729883194,
                        -0.19078335165977478,
                        -0.2640658915042877,
                        -0.2615113854408264,
                        -0.18608170747756958,
                        -0.2792077958583832,
                        -0.2002718299627304,
                        -0.14712363481521606,
                        0.25429674983024597,
                        0.25749287009239197,
                        0.006846499163657427,
                        0.13295945525169373,
                        0.10680335015058517,
                        0.04156268388032913,
                        0.2659396529197693,
                        0.09238623827695847,
                        -0.07366210967302322,
                        -0.1929541677236557,
                        0.25326257944107056,
                        -0.07375705987215042,
                        -0.008564037270843983,
                        0.1694742888212204
                    ],
                    [
                        -0.26018276810646057,
                        -0.035779986530542374,
                        0.036229055374860764,
                        0.0802837610244751,
                        -0.15319474041461945,
                        0.26732301712036133,
                        0.13761571049690247,
                        -0.06831180304288864,
                        0.13224227726459503,
                        -0.16602769494056702,
                        -0.22005595266819,
                        -0.15563148260116577,
                        -0.13231316208839417,
                        -0.11559630185365677,
                        -0.12792085111141205,
                        0.1926005780696869,
                        0.02132582850754261,
                        -0.22262270748615265,
                        0.16510054469108582,
                        0.1461813747882843,
                        -0.07253260165452957,
                        -0.02398650348186493,
                        -0.0417541041970253,
                        0.1387268751859665,
                        0.20968139171600342,
                        -0.12032516300678253,
                        -0.08290380984544754,
                        -0.2506524324417114,
                        -0.023329084739089012,
                        -0.000429892708780244,
                        0.03932174667716026,
                        0.19912908971309662,
                        -0.14888405799865723,
                        0.21744173765182495,
                        -0.20702685415744781,
                        -0.22501327097415924,
                        0.20313432812690735,
                        0.2422444075345993,
                        -0.07852361351251602,
                        0.24722760915756226,
                        -0.038651928305625916,
                        -0.18209172785282135,
                        -0.19858387112617493,
                        0.027926111593842506,
                        0.06424178928136826,
                        -0.06788301467895508,
                        0.20118361711502075,
                        0.15238021314144135,
                        -0.0020115908700972795,
                        0.09247490763664246,
                        0.05111277103424072,
                        0.033502817153930664,
                        0.10761824250221252,
                        0.12513357400894165,
                        -0.030643505975604057,
                        0.2770892381668091,
                        -0.23592987656593323,
                        0.1706002652645111,
                        0.2639281749725342,
                        0.2254084199666977,
                        -0.15827663242816925,
                        -0.21367652714252472,
                        0.22880919277668,
                        -0.036122824996709824
                    ],
                    [
                        -0.19361621141433716,
                        -0.05026424303650856,
                        0.2666286826133728,
                        -0.23588071763515472,
                        -0.12609902024269104,
                        -0.16867516934871674,
                        0.061391353607177734,
                        -0.13789358735084534,
                        -0.06354860216379166,
                        0.2834959626197815,
                        0.17590613663196564,
                        0.020348604768514633,
                        0.29605117440223694,
                        0.075413279235363,
                        -0.1450055092573166,
                        0.030886273831129074,
                        0.15297415852546692,
                        -0.28146690130233765,
                        -0.2760718762874603,
                        -0.08913778513669968,
                        0.13746561110019684,
                        0.1123441532254219,
                        0.18884433805942535,
                        -0.25391459465026855,
                        -0.25293418765068054,
                        0.13632704317569733,
                        -0.0793471485376358,
                        0.06426184624433517,
                        -0.2177625447511673,
                        -0.24383628368377686,
                        0.16207391023635864,
                        -0.16501687467098236,
                        0.2453840970993042,
                        0.15453402698040009,
                        -0.1963679939508438,
                        -0.2671705186367035,
                        0.28079885244369507,
                        0.10367653518915176,
                        0.2112189382314682,
                        0.2614455223083496,
                        0.2626466155052185,
                        -0.20873986184597015,
                        0.10865538567304611,
                        0.05764997377991676,
                        -0.11404160410165787,
                        -0.24391129612922668,
                        -0.030420856550335884,
                        -0.06887251883745193,
                        0.26468512415885925,
                        -0.02350766398012638,
                        -0.21328236162662506,
                        0.13626593351364136,
                        0.28284651041030884,
                        -0.020482495427131653,
                        -0.05521634221076965,
                        0.049064356833696365,
                        -0.012070591561496258,
                        -0.08100350201129913,
                        0.1900337189435959,
                        -0.12019985169172287,
                        -0.26044556498527527,
                        0.25762081146240234,
                        -0.28097379207611084,
                        -0.23148007690906525
                    ],
                    [
                        -0.0212828628718853,
                        -0.23632310330867767,
                        0.04188765957951546,
                        0.2717820405960083,
                        -0.0807405561208725,
                        0.12860965728759766,
                        -0.2964684069156647,
                        -0.022073080763220787,
                        -0.08636154234409332,
                        0.24913817644119263,
                        -0.17443105578422546,
                        0.27564141154289246,
                        -0.1663879156112671,
                        -0.002535472624003887,
                        0.17832842469215393,
                        -0.004809797741472721,
                        0.09704607725143433,
                        -0.0953793153166771,
                        0.2755807638168335,
                        0.1968117356300354,
                        0.020777517929673195,
                        0.014814907684922218,
                        0.023488905280828476,
                        -0.1684006303548813,
                        -0.09585902094841003,
                        -0.25206130743026733,
                        -0.14554022252559662,
                        0.20934735238552094,
                        0.23985278606414795,
                        -0.06741349399089813,
                        0.10959178954362869,
                        0.21122021973133087,
                        0.03666754439473152,
                        -0.12587115168571472,
                        0.006893984042108059,
                        0.23244516551494598,
                        0.2304445058107376,
                        -0.14642173051834106,
                        0.19813454151153564,
                        0.16976869106292725,
                        -0.19426733255386353,
                        -0.28139036893844604,
                        -0.13047046959400177,
                        0.2755874693393707,
                        0.20023612678050995,
                        0.2500428259372711,
                        0.25744330883026123,
                        -0.13037747144699097,
                        0.07365696132183075,
                        0.058852795511484146,
                        -0.13873837888240814,
                        0.16720125079154968,
                        -0.21121156215667725,
                        0.14310745894908905,
                        0.12371368706226349,
                        0.13397091627120972,
                        -0.27397480607032776,
                        -0.22901764512062073,
                        0.20417852699756622,
                        0.10254966467618942,
                        0.04979503154754639,
                        0.14428843557834625,
                        -0.03506012260913849,
                        0.23382101953029633
                    ],
                    [
                        0.1631155014038086,
                        -0.17244410514831543,
                        -0.14313849806785583,
                        0.2068772166967392,
                        0.19326625764369965,
                        -0.07440747320652008,
                        -0.13261419534683228,
                        0.23569120466709137,
                        0.10223198682069778,
                        0.06744401901960373,
                        -0.04015837609767914,
                        -0.09994000196456909,
                        -0.11271389573812485,
                        -0.033475007861852646,
                        -0.1261073797941208,
                        0.006881929934024811,
                        -0.21905063092708588,
                        0.12441233545541763,
                        0.002922076964750886,
                        0.10008011013269424,
                        -0.08542528748512268,
                        0.028629859909415245,
                        0.1650601029396057,
                        -0.018820811063051224,
                        0.0565619021654129,
                        -0.10551317036151886,
                        -0.13334421813488007,
                        0.017381060868501663,
                        -0.25239527225494385,
                        -0.21907426416873932,
                        -0.03749564662575722,
                        0.22254130244255066,
                        0.23839405179023743,
                        -0.2748831510543823,
                        0.10780332237482071,
                        0.022993410006165504,
                        -0.23920200765132904,
                        0.17445649206638336,
                        -0.14228509366512299,
                        -0.17014005780220032,
                        -0.2697567939758301,
                        0.12086412310600281,
                        0.10670597106218338,
                        0.10936637967824936,
                        0.20985904335975647,
                        -0.15820692479610443,
                        -8.244780474342406e-05,
                        0.2648562490940094,
                        0.18669739365577698,
                        0.09170994162559509,
                        -0.2184961587190628,
                        -0.19672764837741852,
                        -0.04365626350045204,
                        0.16774356365203857,
                        0.16942699253559113,
                        -0.12962615489959717,
                        -0.24733740091323853,
                        -0.08196993917226791,
                        -0.14579881727695465,
                        0.11853618174791336,
                        0.15017813444137573,
                        -0.014426104724407196,
                        -0.26446732878685,
                        -0.23224999010562897
                    ]
                ],
                [
                    [
                        0.1244107186794281,
                        -0.16929708421230316,
                        -0.16665083169937134,
                        0.03282227739691734,
                        0.44926512241363525,
                        -0.008073857054114342,
                        -0.01303133089095354,
                        -0.06053537502884865,
                        0.20882700383663177,
                        -0.029181979596614838,
                        -0.010294832289218903,
                        0.09215737879276276,
                        0.06523620337247849,
                        0.00405864929780364,
                        -0.05583168566226959,
                        -0.19541196525096893,
                        0.27254122495651245,
                        -0.1307595670223236,
                        0.053504351526498795,
                        0.05131983384490013,
                        0.02008260227739811,
                        -0.011433800682425499,
                        -0.0646454319357872,
                        0.10295218229293823,
                        -0.06152423471212387,
                        0.028440281748771667,
                        -0.08508791774511337,
                        -0.18627220392227173,
                        0.052618592977523804,
                        0.07660826295614243,
                        -0.029376022517681122,
                        0.028445938602089882,
                        -0.15000270307064056,
                        0.025658931583166122,
                        -0.0026478709187358618,
                        -0.04396975040435791,
                        0.17537902295589447,
                        -0.004430720116943121,
                        -0.0033580244053155184,
                        0.010607350617647171,
                        0.037273891270160675,
                        0.1309438943862915,
                        -0.0024729426950216293,
                        -0.0007472413708455861,
                        -0.11626036465167999,
                        -0.003729376243427396,
                        -0.23424750566482544,
                        0.06479600071907043,
                        -0.15684819221496582,
                        -0.03609664738178253,
                        0.047097742557525635,
                        0.008010787889361382,
                        -0.01699674315750599,
                        -0.15377959609031677,
                        0.06680460274219513,
                        0.18350528180599213,
                        0.31444603204727173,
                        -0.1507364809513092,
                        -0.038335785269737244,
                        0.1269528716802597,
                        -0.033095650374889374,
                        0.023091133683919907,
                        -0.11556927859783173,
                        -0.2769174575805664
                    ],
                    [
                        -0.09045710414648056,
                        0.1758851855993271,
                        -0.10858984291553497,
                        0.08884856849908829,
                        0.06874606758356094,
                        0.13467828929424286,
                        -0.06975868344306946,
                        -0.00992187112569809,
                        0.02763955481350422,
                        0.15528838336467743,
                        0.14925871789455414,
                        -0.037553347647190094,
                        -0.2949589788913727,
                        0.05938054621219635,
                        -0.037615496665239334,
                        -0.04805634543299675,
                        -0.09513358771800995,
                        0.048661790788173676,
                        -0.06404361873865128,
                        0.02853710949420929,
                        0.017929937690496445,
                        -0.010819113813340664,
                        -0.11526747792959213,
                        0.03321836143732071,
                        0.08154001086950302,
                        0.32993149757385254,
                        0.12048296630382538,
                        -0.14229536056518555,
                        0.16770516335964203,
                        -0.010685117915272713,
                        -0.3520744740962982,
                        0.16570599377155304,
                        0.13395647704601288,
                        0.07109074294567108,
                        -0.09363635629415512,
                        0.07916779816150665,
                        0.10814633220434189,
                        0.023160595446825027,
                        0.005956130102276802,
                        -0.01293948758393526,
                        0.1399078369140625,
                        0.1454308032989502,
                        -0.1558266580104828,
                        -0.20410306751728058,
                        -0.14564931392669678,
                        0.061195459216833115,
                        0.04725129157304764,
                        -0.05006327107548714,
                        0.19260334968566895,
                        0.06083715334534645,
                        0.0016323905438184738,
                        0.2079019844532013,
                        0.018651477992534637,
                        0.05861625075340271,
                        0.2272522747516632,
                        0.016914071515202522,
                        -0.045115601271390915,
                        0.08566135913133621,
                        -0.04268408566713333,
                        0.045247361063957214,
                        -0.0017288491362705827,
                        0.03320753574371338,
                        0.22879621386528015,
                        -0.0981646478176117
                    ],
                    [
                        -0.13491766154766083,
                        0.04780225455760956,
                        -0.09337859600782394,
                        0.1302253156900406,
                        0.091808021068573,
                        -0.03907593712210655,
                        -0.015773717314004898,
                        0.05041326954960823,
                        -0.18446104228496552,
                        -0.1279056817293167,
                        0.13405361771583557,
                        -0.03915352001786232,
                        0.04748953506350517,
                        -0.038683343678712845,
                        0.0735403299331665,
                        -0.043087419122457504,
                        -0.044208966195583344,
                        0.19171041250228882,
                        0.09134839475154877,
                        -0.08570202440023422,
                        0.030899405479431152,
                        -0.012977171689271927,
                        -0.2779902517795563,
                        -0.05927468091249466,
                        -0.08696500211954117,
                        -0.10033807158470154,
                        0.10731884837150574,
                        -0.09421397745609283,
                        -0.22411321103572845,
                        -0.05345206335186958,
                        -0.15064819157123566,
                        0.07882963865995407,
                        -0.12441076338291168,
                        0.11559160053730011,
                        -0.04748844355344772,
                        0.09783244878053665,
                        0.05009735748171806,
                        -0.2235354334115982,
                        -0.020133646205067635,
                        0.1934231072664261,
                        -0.0695272758603096,
                        -0.18449664115905762,
                        -0.05956557020545006,
                        -0.016065556555986404,
                        0.2987237870693207,
                        -0.30409422516822815,
                        0.0045307534746825695,
                        0.13813064992427826,
                        -0.06963831186294556,
                        0.15359753370285034,
                        -0.1422027200460434,
                        0.10821861773729324,
                        -0.029210999608039856,
                        -0.13848628103733063,
                        0.22597219049930573,
                        0.18780840933322906,
                        -0.04842158034443855,
                        -0.031861212104558945,
                        0.06635904312133789,
                        0.034763045608997345,
                        -0.12826032936573029,
                        -0.04405355453491211,
                        -0.10260384529829025,
                        0.15754753351211548
                    ],
                    [
                        0.09350084513425827,
                        -0.037075407803058624,
                        -0.009089409373700619,
                        -0.023290177807211876,
                        -0.15017622709274292,
                        -0.01778559200465679,
                        0.03564027324318886,
                        -0.041808631271123886,
                        0.11239131540060043,
                        0.026899857446551323,
                        -0.03504856303334236,
                        -0.020640946924686432,
                        -0.01720432937145233,
                        -0.10015816241502762,
                        -0.02930869534611702,
                        0.03950245678424835,
                        0.024870701134204865,
                        -0.11455874145030975,
                        0.0008735888986848295,
                        0.031433410942554474,
                        -0.1556425392627716,
                        -0.01654364913702011,
                        -0.08709742873907089,
                        -0.18761149048805237,
                        0.13538457453250885,
                        -0.09819605946540833,
                        0.09257059544324875,
                        0.055378761142492294,
                        0.18913112580776215,
                        0.18593722581863403,
                        -0.018105145543813705,
                        -0.12482699006795883,
                        -0.19110767543315887,
                        0.062368206679821014,
                        0.05191095173358917,
                        0.34670203924179077,
                        -0.04762965440750122,
                        -0.013691334053874016,
                        0.20493103563785553,
                        -0.07326286286115646,
                        -0.02033167891204357,
                        -0.08438841253519058,
                        -0.19315366446971893,
                        -0.1168217882514,
                        -0.10646897554397583,
                        0.018442252650856972,
                        0.07801645249128342,
                        -0.25628218054771423,
                        0.0825425460934639,
                        0.24673062562942505,
                        0.03190787881612778,
                        -0.30969223380088806,
                        0.05247046425938606,
                        -0.08203019201755524,
                        0.17775960266590118,
                        0.20151488482952118,
                        -0.08016599714756012,
                        -0.23325447738170624,
                        0.00652251997962594,
                        0.15123037993907928,
                        0.045792356133461,
                        -0.1933167576789856,
                        -0.043970588594675064,
                        0.03692472726106644
                    ],
                    [
                        -0.18308278918266296,
                        -0.08572178333997726,
                        -0.12485042959451675,
                        -0.05938376486301422,
                        0.1754823923110962,
                        -0.13865281641483307,
                        -0.043855808675289154,
                        0.03331471234560013,
                        0.044639140367507935,
                        0.11353465914726257,
                        -0.15981149673461914,
                        0.24618111550807953,
                        -0.07282216846942902,
                        0.048235103487968445,
                        -0.07957655936479568,
                        -0.002582729095593095,
                        0.029515773057937622,
                        0.054359931498765945,
                        0.10465987771749496,
                        -0.11962240934371948,
                        -0.09448635578155518,
                        -0.031111078336834908,
                        0.03309066593647003,
                        -0.0825464278459549,
                        0.15611769258975983,
                        -0.16573040187358856,
                        0.34478887915611267,
                        0.051650214940309525,
                        0.0634123906493187,
                        -0.040625110268592834,
                        0.10422727465629578,
                        0.041230324655771255,
                        0.012191222980618477,
                        -0.21905434131622314,
                        0.003025779966264963,
                        -0.07458125799894333,
                        -0.16279132664203644,
                        -0.05054831877350807,
                        -0.01329485047608614,
                        0.4048239588737488,
                        -0.07918646931648254,
                        0.003912962041795254,
                        -0.017807109281420708,
                        0.017815593630075455,
                        -0.11385966837406158,
                        0.1895064264535904,
                        -0.1292739361524582,
                        -0.049837615340948105,
                        0.19902671873569489,
                        -0.08877182751893997,
                        0.056884247809648514,
                        -0.05291192978620529,
                        -0.20713211596012115,
                        -0.06809592992067337,
                        0.1998530477285385,
                        -0.10167303681373596,
                        -0.08286866545677185,
                        0.06580976396799088,
                        0.09416169673204422,
                        0.018892960622906685,
                        -0.084710031747818,
                        0.20091761648654938,
                        -0.08943673223257065,
                        0.034721266478300095
                    ],
                    [
                        -0.07015911489725113,
                        -0.05011437460780144,
                        -0.07505010813474655,
                        -0.012705746106803417,
                        -0.0005790936993435025,
                        0.2232377678155899,
                        0.07680965214967728,
                        -0.131161168217659,
                        0.11044999957084656,
                        -0.11581765860319138,
                        0.01863359659910202,
                        0.1662319302558899,
                        -0.03606903925538063,
                        -0.05342274531722069,
                        -0.19137930870056152,
                        0.1962580382823944,
                        -0.11193696409463882,
                        0.03809758648276329,
                        0.004171924199908972,
                        0.18568183481693268,
                        0.04651911184191704,
                        0.08711090683937073,
                        0.18958522379398346,
                        -0.025270523503422737,
                        0.17291752994060516,
                        0.08249547332525253,
                        -0.2980025112628937,
                        0.07440486550331116,
                        -0.019702458754181862,
                        -0.10727982968091965,
                        -0.04529687762260437,
                        -0.0006744710262864828,
                        0.24082909524440765,
                        0.08721467107534409,
                        -0.0778757780790329,
                        0.0605938695371151,
                        0.01724890060722828,
                        -0.1326145976781845,
                        -0.04520513489842415,
                        0.27706286311149597,
                        0.08624433726072311,
                        0.030386392027139664,
                        -0.022196227684617043,
                        0.11897590756416321,
                        0.10431579500436783,
                        -0.09304776042699814,
                        -0.230437234044075,
                        -0.05271022021770477,
                        -0.021593397483229637,
                        0.11775843054056168,
                        0.08811341226100922,
                        -0.020230047404766083,
                        0.15997397899627686,
                        0.14894413948059082,
                        -0.0706997662782669,
                        0.07556411623954773,
                        -0.15992280840873718,
                        -0.32037433981895447,
                        0.19306236505508423,
                        0.07588887214660645,
                        -0.15147891640663147,
                        0.12748011946678162,
                        -0.05999957025051117,
                        0.008804933167994022
                    ],
                    [
                        -0.03119802288711071,
                        0.34737300872802734,
                        0.1029353141784668,
                        0.098688505589962,
                        0.16133354604244232,
                        -0.08031687140464783,
                        -0.034077249467372894,
                        -0.1324271857738495,
                        0.07069682329893112,
                        -0.1475740522146225,
                        -0.1336866170167923,
                        0.10603258013725281,
                        0.07351166009902954,
                        0.06999088078737259,
                        -0.16873906552791595,
                        -0.24200654029846191,
                        -0.21070341765880585,
                        0.052231576293706894,
                        0.14944183826446533,
                        0.10631032288074493,
                        0.09555502980947495,
                        -0.05073874443769455,
                        -0.2268165498971939,
                        0.19149711728096008,
                        0.13060937821865082,
                        -0.08492142707109451,
                        -0.00676844222471118,
                        0.03808511793613434,
                        -0.05351939797401428,
                        0.07107305526733398,
                        -0.03463181480765343,
                        0.11492259055376053,
                        0.062276653945446014,
                        0.07274231314659119,
                        -0.09231866151094437,
                        -0.11417768895626068,
                        -0.12971477210521698,
                        0.05617225170135498,
                        0.12079543620347977,
                        -0.11792468279600143,
                        -0.027042584493756294,
                        -0.04874333739280701,
                        0.02380977012217045,
                        0.05724375694990158,
                        -0.07726030796766281,
                        0.03634408488869667,
                        -0.04178977385163307,
                        0.18751351535320282,
                        -0.15549615025520325,
                        0.06821475923061371,
                        0.28641343116760254,
                        -0.2040039300918579,
                        -0.20621325075626373,
                        0.044246088713407516,
                        -0.02530342899262905,
                        -0.022041980177164078,
                        -0.23084935545921326,
                        -0.062280237674713135,
                        0.013853032141923904,
                        0.05684022232890129,
                        0.1879391372203827,
                        -0.08051031082868576,
                        0.11440339684486389,
                        -0.03452254831790924
                    ],
                    [
                        0.08000168949365616,
                        -0.18078894913196564,
                        0.065128855407238,
                        0.1679622083902359,
                        0.01449269987642765,
                        0.08256610482931137,
                        -0.08493907749652863,
                        -0.11636484414339066,
                        0.12508904933929443,
                        -0.0020059701055288315,
                        0.003887653350830078,
                        -0.2596759796142578,
                        -0.016247645020484924,
                        -0.013021630235016346,
                        -0.1445755958557129,
                        -0.12403444200754166,
                        -0.13084650039672852,
                        -0.08246631175279617,
                        0.2101917862892151,
                        -0.19284231960773468,
                        -0.08160579204559326,
                        0.033535487949848175,
                        -0.027288313955068588,
                        0.2895447611808777,
                        -0.036375660449266434,
                        0.12320657074451447,
                        0.005865844432264566,
                        -0.05679451674222946,
                        -0.10976367443799973,
                        0.1272941678762436,
                        0.15343831479549408,
                        0.0369252972304821,
                        0.0889422819018364,
                        -0.04860392212867737,
                        -0.17144975066184998,
                        0.08907683938741684,
                        -0.05944981053471565,
                        -0.03714130073785782,
                        -0.24864926934242249,
                        -0.024888189509510994,
                        -0.13865095376968384,
                        -0.3044828176498413,
                        0.028584523126482964,
                        0.09278719127178192,
                        -0.0950431227684021,
                        -0.01845976710319519,
                        0.026525214314460754,
                        -0.10317855328321457,
                        0.198564812541008,
                        -0.0489560067653656,
                        0.008070159703493118,
                        -0.05019473284482956,
                        0.20665349066257477,
                        -0.05199885368347168,
                        0.022012094035744667,
                        0.11719349771738052,
                        -0.1359303742647171,
                        -0.002229741308838129,
                        -0.2010899782180786,
                        0.010766719467937946,
                        0.020119037479162216,
                        0.2928139865398407,
                        -0.08088339865207672,
                        -0.009716941975057125
                    ],
                    [
                        -0.06365516036748886,
                        0.1414117068052292,
                        0.03091755136847496,
                        0.030445244163274765,
                        -0.028079302981495857,
                        -0.32384413480758667,
                        -0.1506853699684143,
                        -0.30760154128074646,
                        -0.012860261835157871,
                        -0.17916074395179749,
                        -0.10787323862314224,
                        -0.009584624320268631,
                        -0.22693638503551483,
                        0.043408725410699844,
                        0.17779619991779327,
                        0.05739719420671463,
                        0.010565564036369324,
                        0.060412902384996414,
                        0.09125582128763199,
                        0.10720299184322357,
                        0.000911857932806015,
                        0.0635743960738182,
                        0.25818753242492676,
                        0.06341762095689774,
                        -0.22358357906341553,
                        0.030599039047956467,
                        0.128725066781044,
                        0.10522973537445068,
                        0.0767379030585289,
                        0.004812272265553474,
                        -0.029554056003689766,
                        -0.023193305358290672,
                        -0.26377102732658386,
                        -0.02453348971903324,
                        -0.1691557615995407,
                        -0.056344665586948395,
                        0.14636839926242828,
                        0.05385326221585274,
                        -0.07429464161396027,
                        0.25981807708740234,
                        0.07053092122077942,
                        -0.10457219928503036,
                        -0.010150961577892303,
                        -0.031227514147758484,
                        -0.01940390281379223,
                        0.0761590227484703,
                        0.03781989961862564,
                        -0.14158697426319122,
                        -0.10621363669633865,
                        0.0687919408082962,
                        0.03238990157842636,
                        0.13103722035884857,
                        0.09090304374694824,
                        0.10440582036972046,
                        -0.15362416207790375,
                        0.18448147177696228,
                        -0.09914996474981308,
                        0.00807717815041542,
                        -0.10883856564760208,
                        -0.020168747752904892,
                        0.027058565989136696,
                        -0.1642650067806244,
                        -0.0031512228306382895,
                        -0.12772254645824432
                    ],
                    [
                        0.10072427988052368,
                        -0.04387075453996658,
                        -0.06062793359160423,
                        -0.16099978983402252,
                        -0.017880210652947426,
                        -0.10759931057691574,
                        0.04558436572551727,
                        0.07374683022499084,
                        -0.08207668364048004,
                        -0.07715339958667755,
                        -0.1759132742881775,
                        0.014890160411596298,
                        -0.10274772346019745,
                        0.24648435413837433,
                        -0.046821821480989456,
                        -0.06501981616020203,
                        0.12292936444282532,
                        -0.0506301075220108,
                        -0.10445650666952133,
                        -0.16274146735668182,
                        0.2200150489807129,
                        -0.09531749784946442,
                        0.0021578632295131683,
                        0.07843203842639923,
                        0.003661996917799115,
                        -0.03745900094509125,
                        -0.014011034741997719,
                        -0.011519904248416424,
                        -0.0481858067214489,
                        -0.2219296246767044,
                        -0.1496793031692505,
                        0.0035222340375185013,
                        -0.13201263546943665,
                        0.10929279029369354,
                        -0.08641058951616287,
                        0.18478484451770782,
                        0.11795952916145325,
                        0.2353343814611435,
                        0.018681978806853294,
                        -0.10619334876537323,
                        -0.06276880949735641,
                        0.09745578467845917,
                        0.46066704392433167,
                        0.06943579763174057,
                        0.07555656135082245,
                        -0.1062566265463829,
                        -0.1659032106399536,
                        -0.1684858202934265,
                        0.20363755524158478,
                        -0.015930309891700745,
                        -0.07902242243289948,
                        -0.0707927793264389,
                        0.04346407204866409,
                        0.008907636627554893,
                        0.09140929579734802,
                        0.09146946668624878,
                        -0.2165256142616272,
                        -0.05164596438407898,
                        0.15407302975654602,
                        0.02878146432340145,
                        0.07304012030363083,
                        0.07301973551511765,
                        0.10554082691669464,
                        0.05036138743162155
                    ],
                    [
                        -0.02007116749882698,
                        0.01778368093073368,
                        0.01377029251307249,
                        -0.10005991160869598,
                        0.12543028593063354,
                        -0.016883140429854393,
                        0.09219758957624435,
                        -0.12321949005126953,
                        -0.38666975498199463,
                        0.05238494649529457,
                        0.05559074506163597,
                        0.0515129528939724,
                        0.025193704292178154,
                        0.03526097163558006,
                        -0.13097263872623444,
                        -0.0068647973239421844,
                        0.14148664474487305,
                        -0.0246886033564806,
                        0.05441148206591606,
                        -0.11419595032930374,
                        -0.0907016396522522,
                        -0.18025898933410645,
                        -0.048249855637550354,
                        -0.2020607590675354,
                        -0.10377185046672821,
                        0.25425902009010315,
                        -0.029897475615143776,
                        -0.10704001039266586,
                        0.0825200155377388,
                        0.09017493575811386,
                        0.11311652511358261,
                        -0.17286674678325653,
                        -0.11876551061868668,
                        0.19679276645183563,
                        -0.1978606879711151,
                        -0.15341244637966156,
                        0.02598753198981285,
                        -0.020264500752091408,
                        0.1401636153459549,
                        -0.011332886293530464,
                        -0.29699522256851196,
                        0.004066187422722578,
                        -0.1152644157409668,
                        -0.07645884156227112,
                        -0.08530296385288239,
                        -0.08226829022169113,
                        -0.0037045315839350224,
                        0.15540526807308197,
                        0.10973957926034927,
                        -0.047130733728408813,
                        0.07560860365629196,
                        -0.09687395393848419,
                        0.2212696671485901,
                        0.2505429983139038,
                        -0.03547413647174835,
                        -0.17073312401771545,
                        -0.14147113263607025,
                        -0.01334946509450674,
                        0.09360992908477783,
                        -0.027198640629649162,
                        -0.09833613783121109,
                        -0.00967223010957241,
                        -0.10025215148925781,
                        -0.10138646513223648
                    ],
                    [
                        -0.026873065158724785,
                        -0.03871236369013786,
                        0.011247963644564152,
                        0.172576904296875,
                        -0.09665311872959137,
                        -0.044075191020965576,
                        0.21858607232570648,
                        0.011133810505270958,
                        -0.01027797069400549,
                        -0.13130612671375275,
                        -0.011064712889492512,
                        0.03998054936528206,
                        0.07561057060956955,
                        -0.14625686407089233,
                        0.06683621555566788,
                        -0.14100350439548492,
                        -0.021142786368727684,
                        -0.15516622364521027,
                        0.03497466817498207,
                        0.1742878556251526,
                        -0.18499840795993805,
                        0.0008195237023755908,
                        0.011646178551018238,
                        0.02940475195646286,
                        -0.22900375723838806,
                        -0.22258779406547546,
                        -0.018430538475513458,
                        0.048493415117263794,
                        0.15719230473041534,
                        0.1186632290482521,
                        0.06558597832918167,
                        0.10431238263845444,
                        0.14555194973945618,
                        0.08350016176700592,
                        -0.09906145930290222,
                        -0.14041560888290405,
                        0.21733251214027405,
                        0.057640254497528076,
                        0.13170446455478668,
                        0.04012174531817436,
                        -0.1207098588347435,
                        -0.048213180154561996,
                        0.028132356703281403,
                        -0.11917752772569656,
                        -0.026622407138347626,
                        -0.09658622741699219,
                        0.021993882954120636,
                        -0.18088768422603607,
                        0.01820492371916771,
                        0.06534481793642044,
                        -0.040284909307956696,
                        0.10808637738227844,
                        0.015561994165182114,
                        -0.028399797156453133,
                        0.1591041386127472,
                        -0.019131503999233246,
                        0.022329196333885193,
                        0.03307092934846878,
                        0.3751213848590851,
                        -0.2294323891401291,
                        0.1452907919883728,
                        0.22953826189041138,
                        0.1960604041814804,
                        -0.04203053563833237
                    ],
                    [
                        0.08996368944644928,
                        -0.06246433034539223,
                        -0.010668779723346233,
                        0.0660180076956749,
                        -0.07349375635385513,
                        0.13981810212135315,
                        0.04068155959248543,
                        -0.04309307783842087,
                        -0.04070611670613289,
                        -0.03214624151587486,
                        0.38983020186424255,
                        0.20073677599430084,
                        -0.09031365066766739,
                        0.12117742747068405,
                        0.0675690695643425,
                        -0.14250434935092926,
                        -0.1557079255580902,
                        0.024293720722198486,
                        -0.06357351690530777,
                        -0.005570224020630121,
                        0.03465839475393295,
                        -0.1068829596042633,
                        0.0035576079972088337,
                        0.03120746649801731,
                        -0.18258817493915558,
                        -0.1799975037574768,
                        0.024351509287953377,
                        0.15006694197654724,
                        -0.06462860852479935,
                        0.008847079239785671,
                        -0.07488879561424255,
                        -0.027857603505253792,
                        -0.0030119926668703556,
                        -0.3946821689605713,
                        -0.11120710521936417,
                        0.09716737270355225,
                        0.13373404741287231,
                        0.08772773295640945,
                        -0.1153683066368103,
                        0.005011746194213629,
                        -0.1575833261013031,
                        -0.016327563673257828,
                        -0.00014803660451434553,
                        -0.07774639874696732,
                        -0.18440908193588257,
                        -0.0912146344780922,
                        -0.10986045002937317,
                        0.04418259859085083,
                        0.016097888350486755,
                        -0.06964709609746933,
                        0.003782621119171381,
                        -0.022720152512192726,
                        0.012081243097782135,
                        0.1779293268918991,
                        0.007104077842086554,
                        -0.1538185328245163,
                        0.09268633276224136,
                        -0.07508116960525513,
                        0.03231259062886238,
                        0.32178419828414917,
                        0.13054777681827545,
                        -0.16452637314796448,
                        -0.11547072976827621,
                        0.12258671224117279
                    ],
                    [
                        0.0002465873840264976,
                        -0.09746773540973663,
                        0.0405828133225441,
                        0.05372830107808113,
                        0.2517993450164795,
                        -0.13561555743217468,
                        0.05368107557296753,
                        0.14897821843624115,
                        0.10037729889154434,
                        -0.021419687196612358,
                        -0.1918552815914154,
                        -0.1796254962682724,
                        -0.1930868923664093,
                        0.07470659911632538,
                        0.16901442408561707,
                        0.0332752987742424,
                        -0.30364707112312317,
                        -0.04552994668483734,
                        0.14536204934120178,
                        0.010819061659276485,
                        0.17004820704460144,
                        -0.14882197976112366,
                        0.0075949616730213165,
                        -0.11438891291618347,
                        0.1748962700366974,
                        -0.12065277248620987,
                        -0.08619178086519241,
                        0.023835577070713043,
                        0.06076894327998161,
                        0.09799352288246155,
                        -0.16506467759609222,
                        -0.13062988221645355,
                        0.04109163582324982,
                        -0.1653079390525818,
                        -0.2682271897792816,
                        0.15268267691135406,
                        0.04748591035604477,
                        -0.09227246046066284,
                        0.10150926560163498,
                        -0.02209049090743065,
                        -0.017975836992263794,
                        0.08986993134021759,
                        -0.14287221431732178,
                        -0.10099069774150848,
                        0.028305131942033768,
                        -0.12001068890094757,
                        0.0882609412074089,
                        0.07838393747806549,
                        -0.04193980246782303,
                        -0.14453771710395813,
                        -0.15377594530582428,
                        -0.13635855913162231,
                        -0.007206321228295565,
                        0.07504501193761826,
                        -0.2327389419078827,
                        -0.04113978520035744,
                        0.1526063084602356,
                        -0.04624728485941887,
                        0.06879902631044388,
                        -0.14635881781578064,
                        -0.07584156095981598,
                        0.13463854789733887,
                        0.05284782126545906,
                        0.0005700960755348206
                    ],
                    [
                        0.07937411963939667,
                        0.09214354306459427,
                        0.040109459310770035,
                        -0.16986483335494995,
                        0.1879822462797165,
                        -0.17182879149913788,
                        0.0225821603089571,
                        0.062182750552892685,
                        -0.0366719588637352,
                        -0.08602743595838547,
                        0.009638926945626736,
                        -0.1552378386259079,
                        0.07418631762266159,
                        0.03393843397498131,
                        0.08389042317867279,
                        -0.19104240834712982,
                        0.14091280102729797,
                        0.08977542072534561,
                        -0.0037282821722328663,
                        0.10438800603151321,
                        -0.19259722530841827,
                        0.17016282677650452,
                        -0.026806380599737167,
                        -0.10258875787258148,
                        -0.03425884246826172,
                        -0.052617598325014114,
                        -0.12676474452018738,
                        0.1869056671857834,
                        0.16009533405303955,
                        -0.11159373819828033,
                        -0.14038518071174622,
                        -0.07449077814817429,
                        0.25430694222450256,
                        -0.0929444208741188,
                        -0.041616179049015045,
                        -0.06688284128904343,
                        -0.23308883607387543,
                        -0.13487419486045837,
                        -0.005630779545754194,
                        0.001688446500338614,
                        0.09154016524553299,
                        -0.24339161813259125,
                        0.10672544687986374,
                        0.016284234821796417,
                        -0.09451067447662354,
                        0.10861160606145859,
                        -0.20088882744312286,
                        0.16633577644824982,
                        0.13162833452224731,
                        -0.07190487533807755,
                        -0.12631434202194214,
                        -0.05767014995217323,
                        0.28012481331825256,
                        0.09115409106016159,
                        0.1500948667526245,
                        0.1389186829328537,
                        0.10223546624183655,
                        0.017315469682216644,
                        -0.0508044995367527,
                        0.048486627638339996,
                        -0.03211495280265808,
                        -0.12589648365974426,
                        0.1918705403804779,
                        0.09053926169872284
                    ],
                    [
                        -0.14178384840488434,
                        -0.22893354296684265,
                        -0.21106994152069092,
                        0.06692606955766678,
                        0.14009806513786316,
                        0.04857763648033142,
                        -0.09868530184030533,
                        0.16534335911273956,
                        0.010106870904564857,
                        -0.18393459916114807,
                        -0.16648676991462708,
                        -0.0033199002500623465,
                        -0.04511892423033714,
                        0.09776023775339127,
                        0.09391241520643234,
                        0.052882514894008636,
                        0.014979635365307331,
                        -0.034671153873205185,
                        -0.09979470819234848,
                        0.13049763441085815,
                        -0.06261518597602844,
                        -0.19372963905334473,
                        -0.010155600495636463,
                        -0.1106741651892662,
                        -0.009448641911149025,
                        -0.003668750636279583,
                        -0.1201755553483963,
                        0.014777307398617268,
                        -0.2359452098608017,
                        0.09779342263936996,
                        0.08658402413129807,
                        0.21129848062992096,
                        0.039053093641996384,
                        0.20463405549526215,
                        0.23073124885559082,
                        0.048436764627695084,
                        0.151160329580307,
                        -0.05038267374038696,
                        -0.21946226060390472,
                        0.14496493339538574,
                        -0.03380532190203667,
                        -0.15231512486934662,
                        0.10822004824876785,
                        -0.20720070600509644,
                        -0.18037477135658264,
                        0.05805268883705139,
                        0.10879368335008621,
                        -0.010533303953707218,
                        0.026006633415818214,
                        0.0338967889547348,
                        0.06707362830638885,
                        -0.21677309274673462,
                        0.12897315621376038,
                        0.035865169018507004,
                        -0.07744487375020981,
                        -0.18183258175849915,
                        -0.07211338728666306,
                        0.139225035905838,
                        -0.04637483134865761,
                        0.12149680405855179,
                        -0.025381814688444138,
                        -0.18187738955020905,
                        0.20267640054225922,
                        0.019960427656769753
                    ]
                ],
                [
                    -0.003988165408372879,
                    -0.011243498884141445,
                    0.0009370814077556133,
                    0.0002197647700086236,
                    0.00570735102519393,
                    -0.014064706861972809,
                    -0.007190085016191006,
                    0.002903248183429241,
                    -0.00870580691844225,
                    0.0028776158578693867,
                    -0.002702208235859871,
                    0.0014552152715623379,
                    -0.00040041760075837374,
                    0.0036564047913998365,
                    -0.0066726310178637505,
                    0.0062433211132884026,
                    0.9971932172775269,
                    0.9922562837600708,
                    1.0049235820770264,
                    0.9977969527244568,
                    1.0032947063446045,
                    0.9871471524238586,
                    0.9949231743812561,
                    1.0038456916809082,
                    0.9911177158355713,
                    1.0037522315979004,
                    0.9928593635559082,
                    1.000975251197815,
                    0.9998192191123962,
                    1.001263976097107,
                    0.9917244911193848,
                    0.9997332096099854,
                    0.0018820333061739802,
                    0.005428841803222895,
                    0.0056710937060415745,
                    0.004151887726038694,
                    0.008136912249028683,
                    -0.005258781835436821,
                    0.0038248407654464245,
                    -0.007161369547247887,
                    -0.005675837397575378,
                    0.003658333793282509,
                    -0.002069524023681879,
                    0.009864137507975101,
                    0.005050822161138058,
                    -0.0052533275447785854,
                    -0.008781365118920803,
                    0.006048260256648064,
                    -0.0036598865408450365,
                    -0.014105074107646942,
                    0.003235137788578868,
                    -0.00866707693785429,
                    0.00698138726875186,
                    -0.015705201774835587,
                    -0.007606239058077335,
                    0.0020922410767525434,
                    -0.009048117324709892,
                    0.0037051537074148655,
                    -0.002010950818657875,
                    0.0017428353894501925,
                    0.0007508291164413095,
                    0.0035114497877657413,
                    -0.00760095426812768,
                    0.006591640878468752
                ]
            ]
        },
        {
            "type": "dense",
            "activation": "relu",
            "shape": [
                null,
                null,
                16
            ],
            "weights": [
                [
                    [
                        0.30816689133644104,
                        -0.3761274516582489,
                        -0.050385717302560806,
                        0.22656536102294922,
                        0.1405552178621292,
                        0.15232853591442108,
                        -0.23500356078147888,
                        -0.3669113218784332,
                        0.42373767495155334,
                        -0.3796156942844391,
                        -0.390102356672287,
                        0.016043558716773987,
                        -0.05478402227163315,
                        0.037471748888492584,
                        0.1289081871509552,
                        -0.03753915801644325
                    ],
                    [
                        0.019702941179275513,
                        0.06716009974479675,
                        -0.19169244170188904,
                        -0.05906173214316368,
                        0.12355677038431168,
                        0.22668951749801636,
                        -0.013493350706994534,
                        0.21727362275123596,
                        -0.4291965365409851,
                        -0.4049696922302246,
                        -0.09610205888748169,
                        0.09914960712194443,
                        0.21010614931583405,
                        0.27044352889060974,
                        -0.18778680264949799,
                        0.16782131791114807
                    ],
                    [
                        -0.035907864570617676,
                        -0.11637347936630249,
                        -0.04122765362262726,
                        0.23457208275794983,
                        0.27533289790153503,
                        -0.049137040972709656,
                        0.14035627245903015,
                        0.3195149898529053,
                        0.39987754821777344,
                        -0.4138360023498535,
                        -0.30646172165870667,
                        -0.06589317321777344,
                        0.20797626674175262,
                        0.15202295780181885,
                        0.11592661589384079,
                        -0.025297682732343674
                    ],
                    [
                        0.27943307161331177,
                        0.37253788113594055,
                        -0.31518757343292236,
                        -0.06106926500797272,
                        0.4184287190437317,
                        0.05409128591418266,
                        0.008132580667734146,
                        -0.11631873995065689,
                        -0.366230309009552,
                        0.10837887972593307,
                        0.08746489137411118,
                        -0.08792338520288467,
                        0.176646888256073,
                        0.10784363746643066,
                        0.09775225073099136,
                        -0.3376127779483795
                    ],
                    [
                        -0.3157345950603485,
                        0.40301692485809326,
                        -0.16562272608280182,
                        -0.227321058511734,
                        0.1789960116147995,
                        -0.1704460084438324,
                        0.40235334634780884,
                        -0.08541315048933029,
                        0.37442439794540405,
                        -0.23817157745361328,
                        -0.20585712790489197,
                        0.11333302408456802,
                        0.2672651410102844,
                        -0.23014846444129944,
                        0.05015581473708153,
                        0.2598396837711334
                    ],
                    [
                        -0.13452082872390747,
                        0.10071080178022385,
                        -0.36533376574516296,
                        0.1901954710483551,
                        -0.33443349599838257,
                        -0.06608889997005463,
                        0.22246353328227997,
                        0.41756898164749146,
                        -0.2849303185939789,
                        -0.3655415177345276,
                        0.2596605718135834,
                        -0.2719633877277374,
                        -0.18595361709594727,
                        0.33802080154418945,
                        0.32006755471229553,
                        0.1587790846824646
                    ],
                    [
                        0.4093115031719208,
                        0.39276766777038574,
                        -0.15700088441371918,
                        -0.038972873240709305,
                        0.28626513481140137,
                        -0.0722532868385315,
                        -0.1643781065940857,
                        -0.16620077192783356,
                        0.04205076023936272,
                        0.13635016977787018,
                        0.17968448996543884,
                        -0.31898000836372375,
                        0.4207093417644501,
                        0.3960363268852234,
                        -0.4211823046207428,
                        -0.2850792706012726
                    ],
                    [
                        0.09513778984546661,
                        -0.4111742675304413,
                        0.03424401581287384,
                        0.15987437963485718,
                        -0.4148637652397156,
                        0.041168056428432465,
                        0.04310601204633713,
                        0.02442542277276516,
                        -0.2310934066772461,
                        -0.38997191190719604,
                        -0.23067571222782135,
                        0.19925212860107422,
                        0.15703751146793365,
                        0.06085371598601341,
                        -0.05848279595375061,
                        -0.3284364938735962
                    ],
                    [
                        -0.37922152876853943,
                        -0.05767260119318962,
                        -0.17412196099758148,
                        0.2684895098209381,
                        -0.35090914368629456,
                        -0.13434679806232452,
                        -0.08539097756147385,
                        -0.4232564866542816,
                        -0.4105462431907654,
                        0.3087957203388214,
                        0.15867653489112854,
                        -0.25874507427215576,
                        -0.09530126303434372,
                        -0.07338597625494003,
                        -0.2461281269788742,
                        0.34757325053215027
                    ],
                    [
                        0.17910294234752655,
                        0.36977073550224304,
                        0.0927434116601944,
                        -0.0486370213329792,
                        -0.09167472273111343,
                        -0.03596486523747444,
                        0.2429834008216858,
                        -0.1899118423461914,
                        0.0813755914568901,
                        -0.017766261473298073,
                        0.13033971190452576,
                        -0.32583102583885193,
                        -0.4188840985298157,
                        -0.3063601851463318,
                        -0.3447588086128235,
                        0.2172028124332428
                    ],
                    [
                        -0.10483447462320328,
                        -0.06988751888275146,
                        0.3690342307090759,
                        0.3931441605091095,
                        -0.08985719084739685,
                        -0.40066999197006226,
                        0.1374843865633011,
                        -0.4339286684989929,
                        -0.3192611038684845,
                        -0.07139861583709717,
                        0.3358885943889618,
                        0.2700376510620117,
                        0.33455121517181396,
                        0.05359600484371185,
                        0.2487555742263794,
                        0.14447200298309326
                    ],
                    [
                        -0.3109157383441925,
                        0.3311958312988281,
                        0.04642810299992561,
                        -0.10276146233081818,
                        -0.3879757821559906,
                        -0.18055416643619537,
                        0.3105495572090149,
                        0.11952172964811325,
                        -0.21518780291080475,
                        -0.19758275151252747,
                        0.21555878221988678,
                        0.2700929343700409,
                        0.3018069863319397,
                        0.06695466488599777,
                        0.0663929134607315,
                        0.356627494096756
                    ],
                    [
                        0.31010866165161133,
                        0.34635499119758606,
                        -0.057806625962257385,
                        -0.0037290449254214764,
                        -0.3354957103729248,
                        -0.14415155351161957,
                        -0.4211234450340271,
                        0.0858035758137703,
                        0.11010334640741348,
                        -0.1755393147468567,
                        -0.3664448857307434,
                        -0.40351754426956177,
                        0.2904628813266754,
                        -0.40668150782585144,
                        0.24568018317222595,
                        0.2739138901233673
                    ],
                    [
                        -0.4174906611442566,
                        -0.22712744772434235,
                        0.13698963820934296,
                        0.11035311222076416,
                        0.14856912195682526,
                        0.07980214059352875,
                        0.20295174419879913,
                        -0.017885936424136162,
                        0.17613406479358673,
                        0.3589344620704651,
                        -0.13431651890277863,
                        0.050869088619947433,
                        0.27360549569129944,
                        0.1495751589536667,
                        0.22204121947288513,
                        -0.38672828674316406
                    ],
                    [
                        0.3956447243690491,
                        -0.394423246383667,
                        -0.13502413034439087,
                        0.1960946023464203,
                        -0.046231817454099655,
                        0.01139801274985075,
                        -0.30462825298309326,
                        0.06008925288915634,
                        -0.16828957200050354,
                        -0.22452545166015625,
                        -0.06655686348676682,
                        -0.39681729674339294,
                        -0.3826551139354706,
                        0.028830435127019882,
                        -0.4270646572113037,
                        -0.28864073753356934
                    ],
                    [
                        0.1238439604640007,
                        -0.34526240825653076,
                        -0.22532005608081818,
                        -0.23748864233493805,
                        -0.048792582005262375,
                        0.34844714403152466,
                        -0.04857305809855461,
                        0.2320062816143036,
                        -0.010283269919455051,
                        -0.3851830065250397,
                        -0.3579983115196228,
                        0.3705724775791168,
                        0.35853952169418335,
                        0.010050950571894646,
                        0.1617140769958496,
                        0.06007009372115135
                    ]
                ],
                [
                    0.0038823257200419903,
                    0.005195035599172115,
                    -0.00623458344489336,
                    -0.008534567430615425,
                    0.00327786011621356,
                    -0.0061625647358596325,
                    -0.011436047032475471,
                    -0.003135159146040678,
                    -0.004803823307156563,
                    -0.005843527615070343,
                    -0.006081384140998125,
                    0.004132548812776804,
                    0.0023381984792649746,
                    -0.004042800981551409,
                    0.00534656411036849,
                    -0.008565669879317284
                ]
            ]
        },
        {
            "type": "dense",
            "activation": "",
            "shape": [
                null,
                null,
                1
            ],
            "weights": [
                [
                    [
                        -0.5649192333221436
                    ],
                    [
                        -0.20865651965141296
                    ],
                    [
                        0.09667006134986877
                    ],
                    [
                        0.5141340494155884
                    ],
                    [
                        -0.1975768804550171
                    ],
                    [
                        0.004871790762990713
                    ],
                    [
                        0.2852016091346741
                    ],
                    [
                        0.5112484097480774
                    ],
                    [
                        0.45995408296585083
                    ],
                    [
                        0.36702364683151245
                    ],
                    [
                        0.0264392402023077
                    ],
                    [
                        -0.5395076870918274
                    ],
                    [
                        -0.30149078369140625
                    ],
                    [
                        0.5873920917510986
                    ],
                    [
                        -0.24862129986286163
                    ],
                    [
                        0.11847789585590363
                    ]
                ],
                [
                    -0.005069560371339321
                ]
            ]
        }
    ]
}